Language model created by QuickLM on Wed Apr 15 10:28:19 EDT 2020
Copyright (c) 1996-2010 Carnegie Mellon University and Alexander I. Rudnicky

The model is in standard ARPA format, designed by Doug Paul while he was at MITRE.

The code that was used to produce this language model is available in Open Source.
Please visit http://www.speech.cs.cmu.edu/tools/ for more information

The (fixed) discount mass is 0.5. The backoffs are computed using the ratio method.
This model based on a corpus of 10 sentences and 26 words

\data\
ngram 1=26
ngram 2=36
ngram 3=29

\1-grams:
-1.0086 </s> -0.3010
-1.0086 <s> -0.2562
-2.0086 ARE -0.2881
-2.0086 AWAY -0.2562
-2.0086 CAN -0.2881
-2.0086 DO -0.2562
-2.0086 FAVOURITE -0.2968
-2.0086 GO -0.2968
-2.0086 GOODBEY -0.2562
-2.0086 HANDSOME -0.2968
-2.0086 HELLO -0.2562
-2.0086 HOW -0.2968
-2.0086 INTRODUCE -0.2968
-1.5315 IS -0.2881
-2.0086 MAN -0.2562
-2.0086 MOST -0.2968
-2.0086 NAME -0.2562
-2.0086 PLEASE -0.2968
-2.0086 SINGER -0.2562
-2.0086 THANK -0.2881
-2.0086 THE -0.2968
-1.5315 WHAT -0.2837
-2.0086 WHO -0.2881
-1.5315 YOU -0.2515
-1.7076 YOUR -0.2924
-2.0086 YOURSELF -0.2562

\2-grams:
-1.3010 <s> GO 0.0000
-1.3010 <s> GOODBEY 0.0000
-1.3010 <s> HELLO 0.0000
-1.3010 <s> HOW 0.0000
-1.3010 <s> PLEASE 0.0000
-1.3010 <s> THANK 0.0000
-0.8239 <s> WHAT 0.0000
-1.3010 <s> WHO 0.0000
-0.3010 ARE YOU -0.1249
-0.3010 AWAY </s> -0.3010
-0.3010 CAN YOU -0.2218
-0.3010 DO </s> -0.3010
-0.3010 FAVOURITE SINGER 0.0000
-0.3010 GO AWAY 0.0000
-0.3010 GOODBEY </s> -0.3010
-0.3010 HANDSOME MAN 0.0000
-0.3010 HELLO </s> -0.3010
-0.3010 HOW ARE 0.0000
-0.3010 INTRODUCE YOURSELF 0.0000
-0.7782 IS THE 0.0000
-0.4771 IS YOUR 0.0000
-0.3010 MAN </s> -0.3010
-0.3010 MOST HANDSOME 0.0000
-0.3010 NAME </s> -0.3010
-0.3010 PLEASE INTRODUCE 0.0000
-0.3010 SINGER </s> -0.3010
-0.3010 THANK YOU -0.1249
-0.3010 THE MOST 0.0000
-0.7782 WHAT CAN 0.0000
-0.4771 WHAT IS -0.1249
-0.3010 WHO IS -0.2218
-0.4771 YOU </s> -0.3010
-0.7782 YOU DO 0.0000
-0.6021 YOUR FAVOURITE 0.0000
-0.6021 YOUR NAME 0.0000
-0.3010 YOURSELF </s> -0.3010

\3-grams:
-0.3010 <s> GO AWAY
-0.3010 <s> GOODBEY </s>
-0.3010 <s> HELLO </s>
-0.3010 <s> HOW ARE
-0.3010 <s> PLEASE INTRODUCE
-0.3010 <s> THANK YOU
-0.7782 <s> WHAT CAN
-0.4771 <s> WHAT IS
-0.3010 <s> WHO IS
-0.3010 ARE YOU </s>
-0.3010 CAN YOU DO
-0.3010 FAVOURITE SINGER </s>
-0.3010 GO AWAY </s>
-0.3010 HANDSOME MAN </s>
-0.3010 HOW ARE YOU
-0.3010 INTRODUCE YOURSELF </s>
-0.3010 IS THE MOST
-0.6021 IS YOUR FAVOURITE
-0.6021 IS YOUR NAME
-0.3010 MOST HANDSOME MAN
-0.3010 PLEASE INTRODUCE YOURSELF
-0.3010 THANK YOU </s>
-0.3010 THE MOST HANDSOME
-0.3010 WHAT CAN YOU
-0.3010 WHAT IS YOUR
-0.3010 WHO IS THE
-0.3010 YOU DO </s>
-0.3010 YOUR FAVOURITE SINGER
-0.3010 YOUR NAME </s>

\end\
